digraph Tree {
node [shape=box] ;
0 [label="boat <= 0.263\ngini = 0.472\nsamples = 877\nvalue = [542, 335]"] ;
1 [label="title_Mrs <= 0.924\ngini = 0.046\nsamples = 550\nvalue = [537, 13]"] ;
0 -> 1 [labeldistance=2.5, labelangle=45, headlabel="True"] ;
2 [label="title_Miss <= 0.743\ngini = 0.019\nsamples = 511\nvalue = [506, 5]"] ;
1 -> 2 ;
3 [label="embarked_Q <= 1.444\ngini = 0.004\nsamples = 449\nvalue = [448, 1]"] ;
2 -> 3 ;
4 [label="gini = 0.0\nsamples = 410\nvalue = [410, 0]"] ;
3 -> 4 ;
5 [label="fare <= -0.478\ngini = 0.05\nsamples = 39\nvalue = [38, 1]"] ;
3 -> 5 ;
6 [label="age <= 0.007\ngini = 0.069\nsamples = 28\nvalue = [27, 1]"] ;
5 -> 6 ;
7 [label="calculated_fare <= -0.419\ngini = 0.087\nsamples = 22\nvalue = [21, 1]"] ;
6 -> 7 ;
8 [label="gini = 0.0\nsamples = 5\nvalue = [5, 0]"] ;
7 -> 8 ;
9 [label="age <= -0.193\ngini = 0.111\nsamples = 17\nvalue = [16, 1]"] ;
7 -> 9 ;
10 [label="gini = 0.0\nsamples = 3\nvalue = [3, 0]"] ;
9 -> 10 ;
11 [label="gini = 0.133\nsamples = 14\nvalue = [13, 1]"] ;
9 -> 11 ;
12 [label="gini = 0.0\nsamples = 6\nvalue = [6, 0]"] ;
6 -> 12 ;
13 [label="gini = 0.0\nsamples = 11\nvalue = [11, 0]"] ;
5 -> 13 ;
14 [label="fare <= -0.499\ngini = 0.121\nsamples = 62\nvalue = [58, 4]"] ;
2 -> 14 ;
15 [label="age <= -1.152\ngini = 0.231\nsamples = 30\nvalue = [26, 4]"] ;
14 -> 15 ;
16 [label="gini = 0.0\nsamples = 1\nvalue = [0, 1]"] ;
15 -> 16 ;
17 [label="age <= -0.233\ngini = 0.185\nsamples = 29\nvalue = [26, 3]"] ;
15 -> 17 ;
18 [label="age <= -0.393\ngini = 0.305\nsamples = 16\nvalue = [13, 3]"] ;
17 -> 18 ;
19 [label="calculated_fare <= -0.387\ngini = 0.153\nsamples = 12\nvalue = [11, 1]"] ;
18 -> 19 ;
20 [label="gini = 0.0\nsamples = 8\nvalue = [8, 0]"] ;
19 -> 20 ;
21 [label="age <= -0.673\ngini = 0.375\nsamples = 4\nvalue = [3, 1]"] ;
19 -> 21 ;
22 [label="gini = 0.0\nsamples = 2\nvalue = [2, 0]"] ;
21 -> 22 ;
23 [label="age <= -0.553\ngini = 0.5\nsamples = 2\nvalue = [1, 1]"] ;
21 -> 23 ;
24 [label="gini = 0.0\nsamples = 1\nvalue = [0, 1]"] ;
23 -> 24 ;
25 [label="gini = 0.0\nsamples = 1\nvalue = [1, 0]"] ;
23 -> 25 ;
26 [label="sibsp <= -0.035\ngini = 0.5\nsamples = 4\nvalue = [2, 2]"] ;
18 -> 26 ;
27 [label="embarked_Q <= 1.444\ngini = 0.444\nsamples = 3\nvalue = [1, 2]"] ;
26 -> 27 ;
28 [label="gini = 0.0\nsamples = 2\nvalue = [0, 2]"] ;
27 -> 28 ;
29 [label="gini = 0.0\nsamples = 1\nvalue = [1, 0]"] ;
27 -> 29 ;
30 [label="gini = 0.0\nsamples = 1\nvalue = [1, 0]"] ;
26 -> 30 ;
31 [label="gini = 0.0\nsamples = 13\nvalue = [13, 0]"] ;
17 -> 31 ;
32 [label="gini = 0.0\nsamples = 32\nvalue = [32, 0]"] ;
14 -> 32 ;
33 [label="fare <= -0.519\ngini = 0.326\nsamples = 39\nvalue = [31, 8]"] ;
1 -> 33 ;
34 [label="gini = 0.0\nsamples = 2\nvalue = [0, 2]"] ;
33 -> 34 ;
35 [label="sibsp <= 1.283\ngini = 0.272\nsamples = 37\nvalue = [31, 6]"] ;
33 -> 35 ;
36 [label="age <= -1.112\ngini = 0.239\nsamples = 36\nvalue = [31, 5]"] ;
35 -> 36 ;
37 [label="gini = 0.0\nsamples = 1\nvalue = [0, 1]"] ;
36 -> 37 ;
38 [label="fare_group_mid <= 0.996\ngini = 0.202\nsamples = 35\nvalue = [31, 4]"] ;
36 -> 38 ;
39 [label="embarked_Q <= 1.444\ngini = 0.128\nsamples = 29\nvalue = [27, 2]"] ;
38 -> 39 ;
40 [label="fare <= -0.488\ngini = 0.071\nsamples = 27\nvalue = [26, 1]"] ;
39 -> 40 ;
41 [label="age <= 0.007\ngini = 0.444\nsamples = 3\nvalue = [2, 1]"] ;
40 -> 41 ;
42 [label="gini = 0.0\nsamples = 2\nvalue = [2, 0]"] ;
41 -> 42 ;
43 [label="gini = 0.0\nsamples = 1\nvalue = [0, 1]"] ;
41 -> 43 ;
44 [label="gini = 0.0\nsamples = 24\nvalue = [24, 0]"] ;
40 -> 44 ;
45 [label="age <= 0.047\ngini = 0.5\nsamples = 2\nvalue = [1, 1]"] ;
39 -> 45 ;
46 [label="gini = 0.0\nsamples = 1\nvalue = [0, 1]"] ;
45 -> 46 ;
47 [label="gini = 0.0\nsamples = 1\nvalue = [1, 0]"] ;
45 -> 47 ;
48 [label="calculated_fare <= -0.228\ngini = 0.444\nsamples = 6\nvalue = [4, 2]"] ;
38 -> 48 ;
49 [label="gini = 0.0\nsamples = 2\nvalue = [0, 2]"] ;
48 -> 49 ;
50 [label="gini = 0.0\nsamples = 4\nvalue = [4, 0]"] ;
48 -> 50 ;
51 [label="gini = 0.0\nsamples = 1\nvalue = [0, 1]"] ;
35 -> 51 ;
52 [label="title_Mr <= -0.142\ngini = 0.03\nsamples = 327\nvalue = [5, 322]"] ;
0 -> 52 [labeldistance=2.5, labelangle=-45, headlabel="False"] ;
53 [label="gini = 0.0\nsamples = 245\nvalue = [0, 245]"] ;
52 -> 53 ;
54 [label="calculated_fare <= 1.461\ngini = 0.115\nsamples = 82\nvalue = [5, 77]"] ;
52 -> 54 ;
55 [label="age <= -0.073\ngini = 0.095\nsamples = 80\nvalue = [4, 76]"] ;
54 -> 55 ;
56 [label="gini = 0.0\nsamples = 33\nvalue = [0, 33]"] ;
55 -> 56 ;
57 [label="calculated_fare <= -0.268\ngini = 0.156\nsamples = 47\nvalue = [4, 43]"] ;
55 -> 57 ;
58 [label="fare <= -0.384\ngini = 0.32\nsamples = 15\nvalue = [3, 12]"] ;
57 -> 58 ;
59 [label="age <= 0.007\ngini = 0.153\nsamples = 12\nvalue = [1, 11]"] ;
58 -> 59 ;
60 [label="embarked_Q <= 1.444\ngini = 0.444\nsamples = 3\nvalue = [1, 2]"] ;
59 -> 60 ;
61 [label="gini = 0.5\nsamples = 2\nvalue = [1, 1]"] ;
60 -> 61 ;
62 [label="gini = 0.0\nsamples = 1\nvalue = [0, 1]"] ;
60 -> 62 ;
63 [label="gini = 0.0\nsamples = 9\nvalue = [0, 9]"] ;
59 -> 63 ;
64 [label="age_group_young_adult <= -0.238\ngini = 0.444\nsamples = 3\nvalue = [2, 1]"] ;
58 -> 64 ;
65 [label="gini = 0.0\nsamples = 1\nvalue = [0, 1]"] ;
64 -> 65 ;
66 [label="gini = 0.0\nsamples = 2\nvalue = [2, 0]"] ;
64 -> 66 ;
67 [label="age <= 0.007\ngini = 0.061\nsamples = 32\nvalue = [1, 31]"] ;
57 -> 67 ;
68 [label="calculated_fare <= 0.306\ngini = 0.198\nsamples = 9\nvalue = [1, 8]"] ;
67 -> 68 ;
69 [label="gini = 0.0\nsamples = 6\nvalue = [0, 6]"] ;
68 -> 69 ;
70 [label="calculated_fare <= 0.473\ngini = 0.444\nsamples = 3\nvalue = [1, 2]"] ;
68 -> 70 ;
71 [label="gini = 0.0\nsamples = 1\nvalue = [1, 0]"] ;
70 -> 71 ;
72 [label="gini = 0.0\nsamples = 2\nvalue = [0, 2]"] ;
70 -> 72 ;
73 [label="gini = 0.0\nsamples = 23\nvalue = [0, 23]"] ;
67 -> 73 ;
74 [label="deck <= -1.636\ngini = 0.5\nsamples = 2\nvalue = [1, 1]"] ;
54 -> 74 ;
75 [label="gini = 0.0\nsamples = 1\nvalue = [1, 0]"] ;
74 -> 75 ;
76 [label="gini = 0.0\nsamples = 1\nvalue = [0, 1]"] ;
74 -> 76 ;
}